tree
version=v4
num_class=1
num_tree_per_iteration=1
label_index=0
max_feature_idx=7
objective=lambdarank
feature_names=Column_0 Column_1 Column_2 Column_3 Column_4 Column_5 Column_6 Column_7
feature_infos=[3.9999200021332696e-05:12.222196947447154] [4.8123503415959421:14.96248212433278] [1:130] [0.0021321961620469083:0.0092592592592592587] [0:3] none [0.5:1] [0.5:1]
tree_sizes=3375 3382

Tree=0
num_leaves=31
num_cat=0
split_feature=2 2 0 1 1 4 1 2 0 1 1 1 1 1 0 1 3 0 1 1 0 1 1 3 0 3 3 3 1 1
split_gain=146.125 33.0665 7.60206 6.82781 12.5782 6.49158 4.9816 5.51853 4.557 4.53098 12.1418 4.19136 3.76185 14.1428 9.54495 5.54449 3.71905 2.95218 2.739 6.05491 2.76556 2.66702 2.79681 2.6045 5.00249 7.28204 2.58347 9.7422 2.28499 4.33704
threshold=1.5000000000000002 6.5000000000000009 4.9900072358385801 7.0909123214492578 6.2710675289625852 1.0000000180025095e-35 7.6708333201894536 2.5000000000000004 5.1451948822818538 9.2448321062865997 9.1050503533421594 8.1565217112795967 7.3155780870197935 7.0710845347338092 1.7749810774636339 5.6004582946938593 0.0072203107079553764 0.9650808234812237 7.6002388402125822 7.6223363416409891 1.0021348095580846 8.5869157100230655 9.6448612130274949 0.0035273478325785102 0.23329490439294417 0.0037105879113314062 0.0026109838568935434 0.0026007846320346326 7.6223363416409891 7.4679790333221243
decision_type=2 2 2 2 2 2 2 2 2 2 2 2 2 2 2 2 2 2 2 2 2 2 2 2 2 2 2 2 2 2
left_child=2 3 9 4 -2 -3 28 11 -6 10 12 -8 13 15 17 -1 -9 -15 -14 20 -20 -13 -23 -21 -25 -26 27 -17 29 -5
right_child=1 5 -4 6 8 -7 7 16 -10 -11 -12 21 18 14 -16 26 -18 -19 19 23 -22 22 -24 24 25 -27 -28 -29 -30 -31
leaf_value=0.030634449367565028 0.094728724452030538 0.087533453082159526 0.048410894048025822 0.067059776510782279 -0.04003632932024221 0.018686695732337895 -0.092787968877473245 0.062130501544362837 0.019517730573803124 -0.070629416499754932 0.042195102985979407 0.044745401930000428 -0.093351405912668328 -0.018188986863392587 0.032957041641605025 -0.076952510240157451 -0.0070618613678532062 -0.080215019408606578 -0.031200264773341164 -0.079910958952040353 0.052525643233642727 -0.068063091277012613 0.016568272459446899 0.031413611445488515 0.019879636478218787 -0.08955397337457284 -0.082912267954837984 0.077182335410889424 0.10000000000000001 -0.011762058288278247
leaf_weight=1.452783048152926 2.6736538652330664 35.078865530900657 2.1566314212977877 6.8322058226913231 11.017478563357143 3.7942620664834967 1.4148296359926487 6.6881057415157539 4.5340559696778646 16.056058749556541 4.1098887473344794 2.3399587292224169 4.9857955444604185 5.093585245311262 9.0701073594391328 4.7205343572422889 2.7366823609918356 3.077423945069313 2.4195242002606419 11.312587413936855 1.6650087162852285 1.8210027161985638 2.1042551016435027 1.7693725973367671 2.0438091438263655 5.933312276378274 13.346120662055908 1.3095716685056684 2.6033049821853629 2.3438874548301101
leaf_count=13 27 297 20 78 294 35 26 81 73 202 35 27 81 53 70 96 48 39 31 154 18 26 33 18 23 78 268 7 31 34
internal_value=2.01928e-10 0.0466795 -0.0443386 0.0185132 -0.00545032 0.0808136 0.0336336 0.016402 -0.0226733 -0.0466022 -0.0412671 -0.0150593 -0.0462967 -0.0358499 -0.00235361 -0.0635764 0.0420391 -0.0415497 -0.0594968 -0.0527837 0.00292955 0.00249364 -0.0226938 -0.0635896 -0.0446457 -0.0615161 -0.0706401 -0.0434787 0.0586556 0.046926
internal_weight=176.505 85.9825 90.5221 47.1094 18.2252 38.8731 28.8842 17.1048 15.5515 88.3655 72.3094 7.68005 68.1995 38.0701 17.2411 20.829 9.42479 8.17101 30.1294 25.1436 4.08453 6.26522 3.92526 21.0591 9.74649 7.97712 19.3762 6.03011 11.7794 9.17609
internal_count=2316 1110 1206 778 394 332 384 241 367 1186 984 112 949 546 162 384 129 92 403 322 49 86 59 273 119 101 371 103 143 112
is_linear=0
shrinkage=0.05


Tree=1
num_leaves=31
num_cat=0
split_feature=2 2 0 1 0 1 3 0 3 1 1 1 0 0 0 4 1 3 0 0 3 0 2 1 3 0 1 3 3 3
split_gain=312.147 63.9066 41.03 37.2935 29.4362 23.5183 18.3139 23.4171 30.1038 29.6317 22.9488 23.6922 42.2458 14.4906 14.3217 13.1958 14.1187 12.5627 12.2378 29.8631 12.7459 13.3152 17.1813 11.6762 15.8926 12.583 11.5844 11.52 9.80054 27.573
threshold=1.5000000000000002 20.500000000000004 2.8617925509761908 6.2710675289625852 5.9736023807971774 10.562797532844186 0.0027510368419459337 1.8745821502831004 0.0026631205673758869 7.0907705280855566 5.4599026393818502 7.7180375480494394 0.10431943255566403 4.9900072358385801 0.032466721572804197 1.0000000180025095e-35 8.7352133669194423 0.003603615302703686 1.3911890745297406 1.2382692000587421 0.0029455144889814337 0.3103688825209025 4.5000000000000009 7.8625746735506183 0.0029197142516154333 1.0972771743901704 9.5735054185470609 0.002309481140126302 0.0043763885696774694 0.0044543650793650797
decision_type=2 2 2 2 2 2 2 2 2 2 2 2 2 2 2 2 2 2 2 2 2 2 2 2 2 2 2 2 2 2
left_child=5 2 18 -4 15 6 7 8 9 -1 -8 13 -13 28 -10 16 17 -5 19 20 -2 22 26 -14 -25 -26 -22 -9 -12 -30
right_child=1 -3 3 4 -6 -7 10 27 14 -11 11 12 23 -15 -16 -17 -18 -19 -20 -21 21 -23 -24 24 25 -27 -28 -29 29 -31
leaf_value=0.034209419515503485 -0.018165133148818118 0.08321808179922191 0.08483936744117232 -0.052451643705448574 0.042878758976489295 -0.075841446261727175 0.09504312168777683 -0.035819302754733842 0.045989219908840973 -0.064751637722637131 -0.073144721436520413 -0.056525229895966068 0.075761837612383018 0.019224157622591821 -0.019613337506050169 -0.092555019942754668 -0.072359134958843233 0.0046598321020532903 0.066981278044015047 -0.047388046692117623 -0.029128123482341339 0.073624200007663107 0.092716229592491442 0.068956485642715448 0.020373658525499855 -0.05472492102849541 0.037250740001249852 0.043806117453484818 0.061857749323771131 -0.054590621328913826
leaf_weight=9.0706717371940595 7.3125394955277434 60.34266385063529 12.449156448245047 12.057112379930912 22.718015797436237 28.846651988103986 3.1935857236385337 5.7307013263925937 16.050587847828865 45.54831825569272 54.162644220516086 35.517405606806278 7.4323524907231322 6.4733550399541846 17.271866600960493 6.0981322154402724 9.5320320315659028 47.812191806733608 41.980123361572623 9.9540169835090619 10.925956562161447 34.000505417585373 8.3513516485691053 7.4513789098709848 11.723410807549955 10.640106391161678 16.49736862257123 21.906887771561742 5.5951029155403367 55.58709691464901
leaf_count=24 37 133 40 91 86 94 7 50 26 121 271 87 24 20 30 22 24 335 138 24 32 79 19 19 50 55 50 72 18 238
internal_value=1.60421e-11 0.0372273 0.0256489 0.00331209 -0.00702157 -0.0326396 -0.0286626 -0.0128505 -0.0254673 -0.048317 -0.037903 -0.040085 -0.0175106 -0.0535692 0.0119858 -0.0220367 -0.0158404 -0.00684188 0.0448079 0.0341137 0.0446377 0.0512195 0.029926 0.0196922 0.00571495 -0.0153567 0.0108042 0.0272957 -0.0576545 -0.0439414
internal_weight=642.233 300.031 239.689 110.667 98.2175 342.202 313.355 115.579 87.9414 54.619 197.776 194.583 72.7647 121.818 33.3225 75.4995 69.4013 59.8693 129.022 87.0417 77.0877 69.7752 35.7747 37.2472 29.8149 22.3635 27.4233 27.6376 115.345 61.1822
internal_count=2316 1110 977 598 558 1206 1112 323 201 145 789 782 235 547 56 472 450 426 379 241 217 180 101 148 124 105 82 122 527 256
is_linear=0
shrinkage=0.05


end of trees

feature_importances:
Column_1=23
Column_0=16
Column_3=13
Column_2=6
Column_4=2

parameters:
[boosting: gbdt]
[objective: lambdarank]
[metric: ndcg]
[tree_learner: serial]
[device_type: cpu]
[data_sample_strategy: bagging]
[data: ]
[valid: ]
[num_iterations: 100]
[learning_rate: 0.05]
[num_leaves: 31]
[num_threads: 0]
[seed: 0]
[deterministic: 0]
[force_col_wise: 0]
[force_row_wise: 0]
[histogram_pool_size: -1]
[max_depth: -1]
[min_data_in_leaf: 20]
[min_sum_hessian_in_leaf: 0.001]
[bagging_fraction: 1]
[pos_bagging_fraction: 1]
[neg_bagging_fraction: 1]
[bagging_freq: 0]
[bagging_seed: 3]
[bagging_by_query: 0]
[feature_fraction: 1]
[feature_fraction_bynode: 1]
[feature_fraction_seed: 2]
[extra_trees: 0]
[extra_seed: 6]
[early_stopping_round: 0]
[early_stopping_min_delta: 0]
[first_metric_only: 0]
[max_delta_step: 0]
[lambda_l1: 0]
[lambda_l2: 0]
[linear_lambda: 0]
[min_gain_to_split: 0]
[drop_rate: 0.1]
[max_drop: 50]
[skip_drop: 0.5]
[xgboost_dart_mode: 0]
[uniform_drop: 0]
[drop_seed: 4]
[top_rate: 0.2]
[other_rate: 0.1]
[min_data_per_group: 100]
[max_cat_threshold: 32]
[cat_l2: 10]
[cat_smooth: 10]
[max_cat_to_onehot: 4]
[top_k: 20]
[monotone_constraints: ]
[monotone_constraints_method: basic]
[monotone_penalty: 0]
[feature_contri: ]
[forcedsplits_filename: ]
[refit_decay_rate: 0.9]
[cegb_tradeoff: 1]
[cegb_penalty_split: 0]
[cegb_penalty_feature_lazy: ]
[cegb_penalty_feature_coupled: ]
[path_smooth: 0]
[interaction_constraints: ]
[verbosity: -1]
[saved_feature_importance_type: 0]
[use_quantized_grad: 0]
[num_grad_quant_bins: 4]
[quant_train_renew_leaf: 0]
[stochastic_rounding: 1]
[linear_tree: 0]
[max_bin: 255]
[max_bin_by_feature: ]
[min_data_in_bin: 3]
[bin_construct_sample_cnt: 200000]
[data_random_seed: 1]
[is_enable_sparse: 1]
[enable_bundle: 1]
[use_missing: 1]
[zero_as_missing: 0]
[feature_pre_filter: 1]
[pre_partition: 0]
[two_round: 0]
[header: 0]
[label_column: ]
[weight_column: ]
[group_column: ]
[ignore_column: ]
[categorical_feature: ]
[forcedbins_filename: ]
[precise_float_parser: 0]
[parser_config_file: ]
[objective_seed: 5]
[num_class: 1]
[is_unbalance: 0]
[scale_pos_weight: 1]
[sigmoid: 1]
[boost_from_average: 1]
[reg_sqrt: 0]
[alpha: 0.9]
[fair_c: 1]
[poisson_max_delta_step: 0.7]
[tweedie_variance_power: 1.5]
[lambdarank_truncation_level: 30]
[lambdarank_norm: 1]
[label_gain: ]
[lambdarank_position_bias_regularization: 0]
[eval_at: 5]
[multi_error_top_k: 1]
[auc_mu_weights: ]
[num_machines: 1]
[local_listen_port: 12400]
[time_out: 120]
[machine_list_filename: ]
[machines: ]
[gpu_platform_id: -1]
[gpu_device_id: -1]
[gpu_use_dp: 0]
[num_gpu: 1]

end of parameters

pandas_categorical:null
